   -0.212580270900475333E-02    0.410174368054010488E-02    0.208461977024944151E+00    0.730729551308247072E-02    0.145807974008029528E-01    0.159915791911669070E+01    0.190676014432652696E+00    0.501698961130318348E+05
    0.120863400675797232E-02    0.209359053840270327E-02    0.209237999310035366E+00   -0.665717266601671687E-02   -0.785697613779764992E-02    0.160034586591102723E+01    0.188275672159076507E+00    0.501717913543104951E+05
    0.152344453946358111E-02    0.382554254004231547E-02    0.211184630359127462E+00    0.635325006140094461E-02    0.237404871694301967E-01    0.159931067269830018E+01    0.188714453453275088E+00    0.501721021603726404E+05
    0.414715406690167702E-02    0.131231957911446553E-03    0.204352030322205280E+00    0.275968739661063001E-02    0.927140325733663562E-02    0.159977297064487578E+01    0.192700511186828627E+00    0.501729441422714954E+05
    0.146222937581195036E-02   -0.371296255965154309E-03    0.210675488783130443E+00   -0.784507173422641091E-02    0.234188892262526122E-01    0.160030005820747290E+01    0.192653049562461570E+00    0.501729759035597672E+05
   -0.162784547620352881E-02   -0.143549569390493661E-03    0.202707939700460471E+00   -0.582904132849362822E-02   -0.585115653414307324E-02    0.159862758434160668E+01    0.197349861556218309E+00    0.501731906306186575E+05
    0.246586286768003858E-02    0.127874278816102888E-02    0.201072062014360009E+00    0.858826703181780893E-02    0.714852585892100656E-02    0.160044834484334686E+01    0.197383863503226176E+00    0.501737160599912022E+05
   -0.228950288664251690E-02    0.309600272266868622E-02    0.202462094686143013E+00    0.393264068082355145E-02   -0.693138188553030221E-03    0.159914228755582033E+01    0.195316707767307335E+00    0.501740331258162332E+05
   -0.310455429020926096E-02    0.121075439240093995E-02    0.204289693020007768E+00   -0.886274538280992785E-02    0.635364652392603202E-02    0.159971966104933427E+01    0.192489378009720435E+00    0.501745214610693147E+05
    0.116634896360502780E-02    0.419784064527647764E-02    0.206382383333668429E+00    0.223562643626024071E-04   -0.827856288250797268E-02    0.160025678993360376E+01    0.193310349867424264E+00    0.501746416282317950E+05
    0.192434689228480763E-02    0.178092530613089216E-02    0.204679205863279062E+00   -0.539173879372237264E-02   -0.363145798607369952E-02    0.160118657169092060E+01    0.193756331794394610E+00    0.501746626587431456E+05
    0.209812079803007407E-02   -0.118396737077201722E-02    0.200157261831241329E+00    0.271832816953006262E-02   -0.842340925644499694E-02    0.159897155717507600E+01    0.196661758097216866E+00    0.501749221803654727E+05
   -0.484558377584105588E-04   -0.374102084977919846E-03    0.200260359226455908E+00    0.259636160808714156E-02   -0.605130108383288012E-02    0.159917430350965661E+01    0.195028947102511702E+00    0.501752929440104635E+05
    0.115009852509797964E-02    0.939140423116703550E-03    0.210696113801975116E+00   -0.229641380019268704E-02   -0.167727127740652515E-01    0.159881110631920698E+01    0.192130023328963784E+00    0.501755967019518721E+05
   -0.605054813780238560E-03   -0.156813297982284403E-02    0.210958975918540181E+00   -0.752401898457671914E-02   -0.233016004124359105E-01    0.159907010914874181E+01    0.192193171162168913E+00    0.501756408234644114E+05
   -0.109725427486222975E-02   -0.162738847142142432E-03    0.204826262112433211E+00   -0.980769399346104187E-02   -0.551436889701324706E-02    0.159852599584999688E+01    0.194147461062102927E+00    0.501756496965574406E+05
   -0.676603226287684811E-04   -0.128196101516514613E-02    0.204510813492586402E+00   -0.212508625058124845E-02    0.604841168012204555E-02    0.160136089721769448E+01    0.191992767328591052E+00    0.501757280861471081E+05
    0.724477423384968316E-03   -0.155654644972308192E-02    0.207543278641512036E+00   -0.370376987666209967E-02    0.162434700853565650E-01    0.159898025914551423E+01    0.190970241713093153E+00    0.501759418559087280E+05
   -0.250884668479975977E-02   -0.258589160271953898E-03    0.208774096135080467E+00   -0.272935661726272927E-02   -0.140468619966834518E-01    0.159832337125887824E+01    0.190906344643130998E+00    0.501759640650695728E+05
    0.362016095063829799E-03   -0.889959825968770655E-03    0.206495634590161375E+00    0.588913011628985905E-02    0.105187570466309249E-01    0.160091726453138072E+01    0.190670314037409860E+00    0.501759776128035810E+05
   -0.181954044311659498E-02    0.110168718261675382E-02    0.199550363949454523E+00   -0.178794667617064584E-02   -0.374087941562291360E-02    0.159984057046941808E+01    0.196663647848097561E+00    0.501759905775496372E+05
   -0.182508892842063756E-02    0.620534801397583445E-03    0.210001851706685394E+00   -0.402222812815074271E-02   -0.147591592328295829E-01    0.160040989904255881E+01    0.191834722247509581E+00    0.501760006159015829E+05
    0.992652338345725469E-03    0.206313240419982516E-02    0.204881146948589637E+00    0.331038846425320277E-02    0.100638504747766061E-01    0.160129439628628401E+01    0.194300842061057605E+00    0.501760125221540147E+05
   -0.186783583638344707E-02   -0.237031479399356219E-03    0.200453751263087898E+00    0.201680296384718072E-03   -0.119635931159220443E-02    0.159991283867535805E+01    0.195376661118112832E+00    0.501760340634877575E+05
   -0.337056587778259645E-02   -0.405985823697896169E-03    0.208104530731755666E+00   -0.274381750064670027E-02   -0.146406529972000349E-01    0.159945815860561691E+01    0.190759576702433681E+00    0.501760362295234881E+05
    0.182197383145954299E-03    0.277638639652200061E-02    0.204478664086317180E+00   -0.610508445581929571E-02    0.228564943661653530E-02    0.159983385774742670E+01    0.193777352959825427E+00    0.501760553406067556E+05
    0.173570805385614207E-02   -0.115635738409438477E-02    0.207974082938206128E+00    0.515238740614626378E-03   -0.185313914279154196E-01    0.159841094465338474E+01    0.193871328077532878E+00    0.501762274101129879E+05
   -0.248216503814672291E-02    0.127033221054053931E-02    0.211279806011938548E+00   -0.511312445807030058E-03   -0.209464632846145804E-01    0.159960166083919031E+01    0.189553379025207969E+00    0.501763035088625402E+05
   -0.168260755781632853E-02    0.157121300151722939E-02    0.207051732562917867E+00   -0.106105974391139946E-01    0.107408944356785219E-01    0.160015333082811062E+01    0.192068882760407095E+00    0.501763156226113642E+05
   -0.724898685523138226E-03   -0.172905956152515972E-02    0.206839600692183101E+00   -0.673901432379966914E-02   -0.174464864630530236E-01    0.160130294510223314E+01    0.192842637937160805E+00    0.501764004512719039E+05
    0.262375376319746382E-03   -0.862410772017992155E-03    0.204333745291102487E+00    0.302873072886411521E-02    0.910471105125817970E-02    0.160137336588822099E+01    0.195211934891477951E+00    0.501764162469754810E+05
    0.103038612352587973E-02   -0.736879631746162941E-03    0.204927657827045945E+00   -0.778907743833691379E-02    0.117731233927442364E-01    0.160004062079465559E+01    0.195324526680746041E+00    0.501764171926741328E+05
   -0.211492827349856046E-02    0.252820458778849197E-02    0.205202016687147021E+00   -0.292428637455477425E-02   -0.126875048859227402E-01    0.159864720847137387E+01    0.195440763165707770E+00    0.501764865972220359E+05
   -0.872177100666412836E-03    0.581103234282582940E-03    0.204928363231356742E+00    0.736701594251081004E-02    0.101557380286795007E-01    0.160050960840847156E+01    0.192295718115555431E+00    0.501765098399317212E+05
   -0.335531127574026453E-02    0.760785497664580161E-03    0.207052988986920650E+00   -0.426435033267931474E-02   -0.189828312283587264E-01    0.159937287098887926E+01    0.192609131737651207E+00    0.501765542407306129E+05
    0.252602817325485191E-02    0.907228022025926596E-03    0.204939785792944140E+00    0.659542405758609118E-02    0.153860180285218667E-01    0.159876015109110625E+01    0.195527843585538735E+00    0.501765959409230709E+05
   -0.920604492296769211E-03    0.392061076665084322E-02    0.207226782111085861E+00    0.167426297258840839E-02    0.185824447704808077E-01    0.159960214820605695E+01    0.192434537402868283E+00    0.501766296643320529E+05
   -0.134586764506774092E-02    0.231241525605760086E-02    0.201764745051236677E+00   -0.133353330254155911E-02   -0.314269560049085239E-02    0.159845551890655524E+01    0.195898154037068922E+00    0.501766526140491842E+05
   -0.882741971540231115E-03    0.975398367513820416E-03    0.205562780620410251E+00    0.865112645558101245E-02    0.803720518419197283E-02    0.160056805113762257E+01    0.193412534030691752E+00    0.501766551164479606E+05
    0.934904025667554852E-03   -0.863542120680007999E-03    0.206876081813295060E+00   -0.107029802998943879E-02    0.178347318037633540E-01    0.160170260303428758E+01    0.193829781517304789E+00    0.501766778250582938E+05
   -0.122951890793420110E-02    0.788908211334812337E-03    0.212063624507879828E+00    0.331230383135727724E-02   -0.189366682356204991E-01    0.159966438781635856E+01    0.190738847121351252E+00    0.501767236382196425E+05
   -0.660175423425510732E-03    0.119188248417023647E-02    0.207379290858338561E+00   -0.130839134110209698E-02   -0.160422283482722638E-01    0.159786047416820010E+01    0.191113741881233756E+00    0.501767417254818793E+05
    0.530577325674088567E-03    0.237720548730999820E-02    0.202827475379480537E+00    0.311324004792896958E-02    0.111282939924599172E-01    0.159958657266541460E+01    0.196713305462276583E+00    0.501767560468758747E+05
    0.288163714854849365E-02    0.704249974201315429E-03    0.202789635568491305E+00    0.901653336692870289E-03   -0.853749416194816979E-02    0.160008142737588410E+01    0.194855457584690417E+00    0.501768325366127028E+05
   -0.210395743931805030E-02    0.205118128022256912E-02    0.203739536885981842E+00   -0.296254066557952167E-02   -0.581964142246946259E-02    0.160016843092675365E+01    0.195214124428487540E+00    0.501768735196515117E+05
   -0.900726661334893988E-03   -0.876717958904282531E-03    0.212245328454750720E+00    0.262713349346828384E-02    0.180321395019090724E-01    0.159945003970902677E+01    0.188330642085107164E+00    0.501768819774801304E+05
    0.109448530202057356E-02   -0.388046087282505243E-03    0.203166792344540659E+00   -0.530884732467440390E-02    0.107594134692132748E-01    0.159931059491114458E+01    0.196648074700877057E+00    0.501769118511432098E+05
    0.282640247454257352E-03    0.222415594715532142E-02    0.203397414580622493E+00   -0.263479346783916657E-02   -0.148213061468023266E-01    0.159922570861582591E+01    0.194830144844367420E+00    0.501769399947137426E+05
   -0.180413609303600394E-03    0.130615411838268334E-02    0.202454609258156670E+00   -0.144421358966451141E-02   -0.131269862016997058E-01    0.159796653863829197E+01    0.197242362529705229E+00    0.501769442979296655E+05
   -0.883427562246455228E-03   -0.916735736984447764E-03    0.203742418610249443E+00    0.711313026584697861E-03    0.183263423712648199E-01    0.159859520738440364E+01    0.196317740080916847E+00    0.501769483290749558E+05
   -0.260226779613734367E-02   -0.606664307768585605E-03    0.209456141162749326E+00   -0.463326569838559688E-02    0.218307381885142621E-01    0.159911139646011780E+01    0.191549770832017019E+00    0.501769522822639992E+05
   -0.856508931343651471E-03   -0.152766729876222906E-02    0.209102434673114124E+00   -0.508019704501469493E-03   -0.205655324711968429E-01    0.159978243403719400E+01    0.189834778821737910E+00    0.501769546703740634E+05
    0.127968049758700139E-02   -0.747988509814070566E-04    0.207575926771269403E+00   -0.686371324163823071E-02    0.190869326717060944E-01    0.160027418774777441E+01    0.193245804161415485E+00    0.501769643847677144E+05
   -0.883510658264435069E-04    0.162110216218929143E-02    0.200468644478052654E+00   -0.313008119056036593E-02   -0.648714559715406203E-02    0.159880400290639701E+01    0.196312836504701743E+00    0.501769755564664592E+05
    0.168067197373018769E-03    0.176262899240006189E-02    0.203356877350825999E+00   -0.411246705429893500E-02    0.160443797110977338E-01    0.159807739773864932E+01    0.196338406207759913E+00    0.501769870320710543E+05
    0.988779608848674508E-04    0.949256190391458018E-03    0.204037883800448822E+00   -0.374804634878561638E-02   -0.568541064730557211E-02    0.160032017788280756E+01    0.195604367566812848E+00    0.501770201694051138E+05
   -0.103004751464818071E-02    0.109260386595410653E-02    0.208028609681873589E+00    0.458581259772891658E-02    0.132321620518516675E-01    0.160073045286685822E+01    0.192551899022810030E+00    0.501770539540792088E+05
    0.206719555009758464E-02   -0.836533907794367220E-03    0.208828652812115156E+00    0.479168950870172139E-02   -0.198549853386860986E-01    0.159958097284318712E+01    0.193310300988537742E+00    0.501770597991755785E+05
   -0.112454696716538568E-02    0.273746053351733550E-02    0.206382390768146518E+00   -0.220745212866715890E-02   -0.118696150905901743E-01    0.159941550258182574E+01    0.191239706905091317E+00    0.501770741797243390E+05
    0.528137463559739885E-03   -0.253384348394034811E-03    0.203593724295750345E+00    0.271615360910355819E-02    0.172762230205380785E-01    0.160112301858636741E+01    0.195957646886890297E+00    0.501770783929925674E+05
   -0.153323976259366100E-02    0.197159727226564390E-02    0.206066165076129487E+00   -0.572789120491395964E-02   -0.843648724653707494E-02    0.159909940511471582E+01    0.191406950630558709E+00    0.501770926646910666E+05
   -0.773747501072573492E-03    0.625340000175105864E-05    0.211893245019418724E+00    0.278809030885955600E-02    0.233795926123742531E-01    0.160002725793277900E+01    0.188966802274595863E+00    0.501771119954420355E+05
   -0.327893400828792141E-03    0.510248671351049769E-03    0.212793312587550271E+00   -0.701216167997738282E-02   -0.204761361607880693E-01    0.159978032069924780E+01    0.190185177617162748E+00    0.501771150392560157E+05
   -0.189791778285542940E-02    0.153079969748830995E-02    0.211063539910059578E+00   -0.235536339112843440E-02    0.204731223344898766E-01    0.160013776167157395E+01    0.188748866492341100E+00    0.501771170915055845E+05
   -0.243867021983023690E-02   -0.127629350972598252E-02    0.208202861840699860E+00    0.253945401767177725E-02   -0.187549894953853991E-01    0.159940402921296387E+01    0.192429206935050362E+00    0.501771484564256607E+05
    0.215789055790631488E-02    0.213176611637086282E-02    0.204111398259503640E+00    0.149461084940909206E-02   -0.113483756709750888E-01    0.159935970649396064E+01    0.195833880860516757E+00    0.501771872014627443E+05
   -0.246770772116609795E-03   -0.154683439719287882E-02    0.207850814485560725E+00   -0.457729726375308288E-02    0.925440174470001931E-02    0.159960781832121568E+01    0.190851915563392427E+00    0.501772353913097832E+05
   -0.166422495251250763E-02    0.693327106963888252E-03    0.209955545305782892E+00    0.146480561056128167E-02   -0.170708651741129785E-01    0.159970083600432988E+01    0.189152757116210907E+00    0.501772525037239393E+05
   -0.108799474663679062E-03    0.125915146133410787E-02    0.200405831101080983E+00    0.495797629762220748E-02    0.447928960458074399E-02    0.159971524444310509E+01    0.196758562780202678E+00    0.501772635083417481E+05
    0.184952697971915389E-02    0.355868583099320688E-03    0.200821292754723851E+00    0.993513270299367646E-03    0.925329267632926666E-02    0.159936678701386015E+01    0.197136406769716305E+00    0.501773004493449844E+05
    0.188855309514182699E-02   -0.205987439576898622E-03    0.204588058252229088E+00    0.170317760183724687E-03   -0.120062768102254663E-01    0.160102544603792740E+01    0.192757848347852728E+00    0.501773628242281557E+05
    0.151474110255190089E-03    0.274891958043455638E-03    0.206977781988678333E+00    0.927079467960670311E-02   -0.792995448657617119E-02    0.159984344265357215E+01    0.191623292389827116E+00    0.501773666480737302E+05
    0.742032377254196198E-03   -0.757577698907957171E-03    0.205056784158221428E+00   -0.273450922316240130E-02   -0.197785210342908274E-01    0.159994936285105949E+01    0.196328004634607478E+00    0.501773703218053124E+05
   -0.764629008431914523E-03   -0.192893009648050320E-02    0.206352313360254336E+00   -0.220221956784233397E-02    0.139872093401870734E-01    0.159990207074933788E+01    0.191622686482258747E+00    0.501773781012213294E+05
   -0.243063917108759663E-03   -0.129824613658406337E-02    0.208824441967681879E+00   -0.238824037649219834E-02    0.134556996250720512E-01    0.160060573419064145E+01    0.189654936951929365E+00    0.501774053586213486E+05
    0.171019231588095066E-02   -0.559200481136487137E-03    0.207028150531361199E+00    0.325469591693335059E-02    0.196624899765601435E-01    0.160063418360362109E+01    0.192292313757455258E+00    0.501774189681569478E+05
    0.115378732303227766E-02    0.685319790608205737E-04    0.207313383348347896E+00    0.199824201196727169E-02   -0.196293179303360515E-01    0.160086082841683863E+01    0.191569730685621109E+00    0.501774253884485806E+05
    0.973832252662754539E-03    0.476858615157659004E-04    0.205696610841825278E+00    0.436134538143333195E-02   -0.102648352676752985E-01    0.159880362250871100E+01    0.194449684016781699E+00    0.501774564151189552E+05
   -0.257174751868964753E-03    0.145338076472635580E-02    0.209878570782120133E+00   -0.479284028534258943E-02    0.223004601490468940E-01    0.160127451619788230E+01    0.191795375807230523E+00    0.501774597165963132E+05
   -0.222746711414514062E-03    0.122253575901559768E-03    0.212636747025205380E+00   -0.262159307778379869E-02    0.194287859135969104E-01    0.159906473727895104E+01    0.188546013122005113E+00    0.501774845259710492E+05
   -0.160340874069799883E-03   -0.135744798446414726E-02    0.205677284395631182E+00   -0.429839458919960282E-02    0.655500683159335185E-02    0.159957562607751935E+01    0.191689451723344645E+00    0.501774971781129352E+05
   -0.166263597930628882E-02   -0.113464822982535106E-02    0.205343158527209829E+00   -0.583754460088145577E-02    0.177353539265074911E-01    0.159984481753676233E+01    0.194463073298401623E+00    0.501775011699871538E+05
   -0.140222674373375922E-03    0.126977746887846138E-02    0.200506562763991147E+00    0.179989592720652958E-02   -0.169589352187006492E-02    0.159874234584195207E+01    0.195972022550711805E+00    0.501775150633099111E+05
   -0.410336121199041711E-03   -0.183266609882006036E-02    0.207125128023525257E+00   -0.472799763415937546E-03   -0.153023292006633782E-01    0.160045184561580789E+01    0.193325057452288285E+00    0.501775232147630231E+05
    0.489880236113378678E-03    0.128169507693945634E-02    0.210946911447827096E+00   -0.284647642157379033E-02   -0.163408895544801813E-01    0.159846966195044127E+01    0.189702711309585603E+00    0.501775846125595926E+05
    0.416368985782330001E-04    0.280584517781671226E-03    0.205322537554323170E+00    0.168006495945549617E-02   -0.102575989070486095E-01    0.159790398510071507E+01    0.192387103093008632E+00    0.501776079823996915E+05
    0.265716098598947799E-02   -0.925672770770678941E-03    0.204901223843120706E+00    0.402495168148282734E-02    0.127282358602929663E-01    0.159996948027439179E+01    0.193447491690021206E+00    0.501776277321101225E+05
    0.141908758599904218E-03    0.343447777118417610E-03    0.208759806773727685E+00    0.400048871022942731E-02   -0.181507759513596517E-01    0.159816570186891971E+01    0.193276517518107871E+00    0.501776297596949371E+05
   -0.247243028093124080E-02   -0.576946506864055015E-03    0.203629540904711720E+00   -0.594319464202421044E-02    0.831463495840911726E-02    0.159926007266849046E+01    0.194599779090461417E+00    0.501776648683995518E+05
   -0.671679807226058787E-03    0.380800201710964866E-03    0.206574573643358600E+00   -0.714337646836830931E-02   -0.202838161865644545E-01    0.160000261064312732E+01    0.195016938731154915E+00    0.501777051144009383E+05
   -0.874738546536383329E-03   -0.256026423186429765E-03    0.204832394013649277E+00   -0.545726889947864557E-02   -0.137069190382418798E-01    0.159812606559330694E+01    0.195292364293011944E+00    0.501777649023642589E+05
    0.152604206976105698E-02   -0.690614502326249673E-04    0.211925111613162298E+00   -0.157162105592176249E-02    0.217804858147983282E-01    0.159902807850551665E+01    0.190055161434758341E+00    0.501777734596875307E+05
    0.190681099645553472E-02   -0.989850253649052951E-03    0.205110094884998623E+00    0.383674501537271950E-02   -0.195200741540028783E-01    0.159970815314161019E+01    0.195028487730311589E+00    0.501777865827669739E+05
    0.145543901779297108E-02    0.588690469053046732E-03    0.201735112878809797E+00   -0.150474793326452194E-02   -0.121535872527416822E-01    0.159991899575284502E+01    0.196923748414694927E+00    0.501777999209092377E+05
    0.339400946746355422E-03    0.169774477148006923E-02    0.201986503809108986E+00   -0.551805877860324367E-02    0.749357478790357856E-02    0.159921812263129626E+01    0.195369882339130718E+00    0.501778126982662507E+05
   -0.178567250847130665E-03   -0.123873053500444001E-02    0.206091868691956281E+00   -0.367743393356227688E-02    0.166962636489319527E-01    0.160091674264054640E+01    0.193041785406498662E+00    0.501778666175356338E+05
   -0.832671195877846817E-03    0.719716857316432925E-03    0.203119322725722501E+00   -0.487807873353382493E-02    0.934288232339683389E-02    0.160093274955378928E+01    0.195675152372343480E+00    0.501779000614306497E+05
   -0.313082751519580082E-03   -0.533686953334642768E-04    0.205158543295082374E+00    0.606699148368425312E-02   -0.154369277237605684E-01    0.159838861209347938E+01    0.193744411874241185E+00    0.501779070465240729E+05
   -0.236373855938705013E-03    0.273167416242576589E-02    0.202320208195651580E+00   -0.289825708846450092E-02   -0.460471785724805849E-02    0.159945875216266598E+01    0.195598897306364955E+00    0.501779094950689614E+05
    0.360657876816041173E-03    0.202748077603814034E-02    0.203547117544387035E+00   -0.452253975854352563E-02   -0.367472123754811197E-02    0.160010873860961000E+01    0.193447169575113015E+00    0.501779375358771795E+05
   -0.122858905338355928E-02   -0.383495512641853582E-03    0.206196219862051777E+00   -0.829647564974576868E-02    0.149082594988908801E-01    0.160035972083833333E+01    0.194376136638709451E+00    0.501779379772431566E+05
    0.988461848979461759E-03    0.248056412131624914E-03    0.207717778324372215E+00    0.395829118218213316E-02    0.234361682211498279E-01    0.159963953621853960E+01    0.192892962929161915E+00    0.501779647570380039E+05
   -0.576124277018248525E-03    0.838897538484785206E-03    0.206047023628972564E+00    0.426955029892288340E-02   -0.775060464548729677E-02    0.160072560348798176E+01    0.193303318421786607E+00    0.501779721690554798E+05
    0.196901536079281377E-02    0.145314945321458190E-02    0.208379284811777837E+00    0.268993366627756636E-02   -0.210837744657915022E-01    0.159966330657304279E+01    0.193403597275116773E+00    0.501779837146135105E+05
   -0.191783341526234542E-02   -0.134556318388466332E-04    0.208450585726568910E+00    0.778578232801530046E-04    0.160279560972180352E-01    0.159893667625149605E+01    0.190267855862166685E+00    0.501780208667635015E+05
   -0.137952722974107812E-02    0.704395583653952555E-03    0.203261906172053530E+00   -0.683245624804415530E-03    0.155463439749714549E-02    0.159909813957148517E+01    0.193978249734720498E+00    0.501780542563728741E+05
    0.100647666158344104E-03    0.141581319634544243E-02    0.208178170346975083E+00   -0.599671798233177011E-02   -0.175030549487974335E-01    0.159843348500398719E+01    0.193600806908059558E+00    0.501780607856262359E+05
   -0.821522582635899256E-03   -0.334111998208998695E-03    0.205673743447586599E+00    0.566417536537494604E-03   -0.144434983428690378E-01    0.159954247296361474E+01    0.195506262323490304E+00    0.501780610082227795E+05
   -0.670332670137610055E-03    0.191641347554499656E-03    0.207046649742056166E+00    0.290664067092875900E-02    0.222472549169191736E-01    0.159872041475002025E+01    0.193291225711057640E+00    0.501780762615438798E+05
   -0.264594040491741519E-03    0.995554332263199216E-03    0.205703483135712600E+00   -0.370225698152000515E-02   -0.172091129350509936E-01    0.159930440621279790E+01    0.192558545742012699E+00    0.501780822722821104E+05
   -0.586933078944950281E-03    0.145039223122936812E-02    0.210374933892529981E+00    0.594865267662318675E-02    0.229192381450387950E-01    0.159965993221846992E+01    0.190505724597471476E+00    0.501780968994790674E+05
    0.107242260170168063E-02   -0.912075938511748606E-03    0.204022422212949361E+00    0.247781005895642004E-02   -0.119356960039502941E-01    0.159827676154436582E+01    0.194751990677324516E+00    0.501781034766146549E+05
   -0.380563190668221278E-03    0.240999186570141008E-02    0.209863294547458112E+00   -0.609580669613637993E-02   -0.170990254164985617E-01    0.159949232188793045E+01    0.190666721821724672E+00    0.501781420446051779E+05
    0.787883290865943817E-03    0.236364449608571052E-03    0.204056766902540904E+00   -0.423531378925563751E-02   -0.264975570496187030E-02    0.160036323803709513E+01    0.193412330279555095E+00    0.501781428760583076E+05
   -0.100478738333273278E-02    0.199839821842417824E-02    0.204623013631731465E+00    0.230754605872465768E-02    0.178938819281241057E-01    0.159906114275344446E+01    0.196117074867079300E+00    0.501781435653883163E+05
   -0.992488093379428649E-04   -0.692727343495749825E-03    0.204485805739791054E+00    0.734315319006273448E-02   -0.105065751906379679E-01    0.159898037048132324E+01    0.194517819628606259E+00    0.501781610888604991E+05
   -0.178714127187723363E-03   -0.124168492588196599E-03    0.209276854962875902E+00   -0.522388608140772481E-02    0.141871840733696075E-01    0.159964408050871865E+01    0.191737193422349739E+00    0.501781810293546368E+05
    0.553410816556757163E-03    0.514715854422951994E-03    0.200710077719721491E+00   -0.133241071035830605E-02   -0.469860403176645958E-02    0.160000094230000789E+01    0.196954021325981415E+00    0.501782067860354800E+05
   -0.895048666262952374E-04    0.646638009974353969E-03    0.205134874049331339E+00    0.267254996262648870E-02    0.178008145474354562E-01    0.160143676397275025E+01    0.194739396029310202E+00    0.501782632868972796E+05
    0.393835990893511706E-03    0.233666837868829570E-03    0.208459023470931398E+00    0.763686150109070538E-02   -0.160254668756734248E-01    0.159902964355649857E+01    0.191237563273676442E+00    0.501782907622371931E+05
    0.779134490287655430E-03    0.143145430934593556E-02    0.208459777962117815E+00   -0.444367540850039433E-02   -0.195577723562981587E-01    0.159980963763548822E+01    0.193922338362136015E+00    0.501783094382516429E+05
    0.453140357100363861E-03   -0.134350371218947413E-03    0.202523345689804679E+00    0.147505485156809724E-03    0.491002692374005456E-02    0.160082026939922195E+01    0.195333611853604705E+00    0.501783308140352601E+05
    0.217262059289307020E-03   -0.136723592945178665E-02    0.207656794436555991E+00    0.306637865890088679E-02   -0.186605795236017696E-01    0.160100358720379976E+01    0.191808847177360492E+00    0.501783384272551921E+05
    0.158106646967808582E-02    0.210122601509740778E-04    0.210163066600332793E+00    0.312456256331024307E-02    0.240438816473981243E-01    0.159999698751609820E+01    0.191485820230997666E+00    0.501783731409120228E+05
   -0.162279749318252676E-02   -0.947773583817823140E-03    0.205062163895421978E+00   -0.116314819814290760E-02    0.903828393828107202E-02    0.160017376855636639E+01    0.192298906349176429E+00    0.501783833576601974E+05
   -0.239394235189609519E-03   -0.691506580831636954E-03    0.206438990120958482E+00    0.309103686657859200E-02    0.102274825592582747E-01    0.159854777739900222E+01    0.192910108374825112E+00    0.501783866212351350E+05
   -0.132241796145639713E-02    0.339316467951100438E-03    0.202000372587096660E+00   -0.311711990319400722E-02    0.541076558869628410E-02    0.159932906931626184E+01    0.196148628063146507E+00    0.501784218046956448E+05
   -0.166339444713133294E-02    0.304269414408047886E-03    0.207705478154004503E+00   -0.431342965786715715E-02   -0.219559120858424661E-01    0.159957597133050089E+01    0.192908889481970991E+00    0.501784473820236381E+05
    0.160439870078073719E-02    0.151759217896039566E-02    0.204972654169340573E+00   -0.320958338445573310E-02   -0.781231922960853864E-02    0.159998582304282744E+01    0.193785446023518493E+00    0.501784532289216077E+05
   -0.127659876348964400E-02   -0.792000500541700651E-04    0.203065260418870824E+00   -0.323025518092490138E-04    0.923348054100488203E-02    0.160059950777564763E+01    0.193773958863754259E+00    0.501784675689287906E+05
   -0.576788602410782778E-03   -0.515418358228070638E-04    0.204954291699307956E+00    0.445383549587397010E-02   -0.105273266083411171E-01    0.159939441443865027E+01    0.192225707875450708E+00    0.501785100034872230E+05
    0.335223909280246528E-03    0.380716966946364089E-03    0.208549836706054453E+00    0.490023183517300509E-02   -0.192740401592497307E-01    0.160019959278160129E+01    0.191014702908047229E+00    0.501785504851812220E+05
    0.568125671859978079E-03    0.688764743235486957E-03    0.209609115837701171E+00    0.196403768208477936E-02   -0.182244033841069825E-01    0.160046052224645408E+01    0.192719471867221964E+00    0.501785884860255392E+05
    0.102504967310612866E-02    0.230549083219487810E-03    0.206328017849869427E+00    0.475078953853902419E-02    0.103067555899645641E-01    0.159875790450414934E+01    0.192393556527094861E+00    0.501786038598943924E+05
   -0.418162674535259434E-03    0.106528813569717177E-02    0.210802198193741158E+00    0.756723860428062944E-03   -0.169593656678800747E-01    0.160094321030858344E+01    0.189621227866943548E+00    0.501786332988542126E+05
   -0.152201745860951134E-02    0.206223559768108772E-02    0.208657779091834944E+00   -0.378216020301183620E-02   -0.147743887947164448E-01    0.159876449158950562E+01    0.191183917080777893E+00    0.501786412857296236E+05
   -0.219105278875139121E-02    0.146477795510270566E-04    0.207570349130193815E+00   -0.617805584617250880E-02   -0.200287755865802553E-01    0.159978481807210704E+01    0.193745816253430375E+00    0.501786526048018059E+05
   -0.161397010186505366E-02    0.793125204848659160E-04    0.203600593778946098E+00    0.280716453080007144E-02    0.140899917304662115E-01    0.160009419796615004E+01    0.194641642081190863E+00    0.501786771664500629E+05
   -0.554385811096673453E-03    0.120917300183334795E-02    0.209110403728223898E+00   -0.981004808217098012E-03    0.219989331889010736E-01    0.159847985902012635E+01    0.190954850204679311E+00    0.501787030502069247E+05
   -0.552807809866992040E-03    0.173456047814475557E-02    0.202981052842685195E+00   -0.272310653922856749E-02   -0.890240480078394181E-02    0.159976320506530656E+01    0.196391182028169964E+00    0.501787164276279509E+05
    0.552394450903594299E-03    0.142431807973496293E-02    0.203845148169828794E+00    0.165897851662633045E-02   -0.668479976272109977E-02    0.159849694674221565E+01    0.194383152387290287E+00    0.501787506207548868E+05
    0.377923397079538473E-03    0.105711911268056478E-02    0.211325211830304838E+00    0.154411453604536009E-03    0.260586179935705931E-01    0.160004589436437716E+01    0.191034894259211552E+00    0.501787620621816313E+05
    0.226913237616468630E-03    0.111349303724365750E-02    0.205089484360979207E+00   -0.504026307520935579E-02   -0.105433669718335565E-01    0.159839560232397493E+01    0.193390310969119544E+00    0.501787763608660607E+05
   -0.501737744880203672E-03    0.466324885320799692E-03    0.203502801491290713E+00   -0.621765615547256734E-02   -0.146157285441394225E-01    0.159966143846945030E+01    0.195378805862369359E+00    0.501788786123165773E+05
    0.449751400183745595E-03    0.444723938207707234E-04    0.201533920284844181E+00    0.155622312170414223E-02   -0.831451906138275243E-02    0.159955829997201482E+01    0.195216915556017723E+00    0.501788890886136651E+05
   -0.142504667661081654E-02    0.541783067029497079E-04    0.211361835489717625E+00   -0.100071979954818868E-03    0.198558285059428768E-01    0.160038185286519052E+01    0.189419426243528422E+00    0.501789093693525283E+05
    0.145298065466346622E-02   -0.102872113084953088E-02    0.206464287182665879E+00    0.311578181390789744E-02   -0.196063143360142578E-01    0.159922815013001807E+01    0.193163560918353377E+00    0.501789142417114999E+05
   -0.273312394528649118E-03    0.804837147960243970E-03    0.206034947620676867E+00   -0.807437535435176490E-02   -0.976251409920894653E-02    0.159960718007470870E+01    0.192879608575285633E+00    0.501789378027251296E+05
   -0.172080707145795780E-02    0.751378256891055440E-03    0.208910211541054658E+00   -0.361386863540431869E-02   -0.188323078896175666E-01    0.159834039047168197E+01    0.191978671440210608E+00    0.501789470158948607E+05
    0.180478787448234632E-02    0.714595590993594284E-03    0.209390663744705746E+00    0.253690173110734940E-02    0.220846105454251262E-01    0.159877223572822991E+01    0.191643073704187067E+00    0.501789567459759128E+05
    0.158508903342018679E-02    0.294968205899136607E-03    0.204435375663971020E+00    0.174050003800044206E-02    0.124272384025215094E-01    0.160098086403601503E+01    0.194021024648213358E+00    0.501789969987983568E+05
    0.690747279758031701E-04   -0.129834512294201574E-02    0.203915711825081641E+00   -0.329523781753748857E-02   -0.163567396001899068E-01    0.159997573410509197E+01    0.194983612330434347E+00    0.501790224106922760E+05
   -0.602733234280836746E-03   -0.155423068109969355E-02    0.208378622828444632E+00   -0.310388681267953492E-02   -0.206574376350697475E-01    0.159880023961418316E+01    0.192563170348652779E+00    0.501790249548585343E+05
   -0.922323266546520599E-03    0.105316737609749953E-02    0.206907603068689522E+00    0.215516292297796008E-03   -0.191949528407224373E-01    0.160065945415809141E+01    0.194280789039989521E+00    0.501790758293610634E+05
   -0.237713909905009789E-02   -0.265305281485342490E-03    0.205255923334831725E+00   -0.376596221230481032E-02   -0.151925401111503849E-01    0.159901580538703425E+01    0.194079171041674409E+00    0.501791326247190227E+05
   -0.626195442159332332E-03    0.741426340998653033E-03    0.203131578803395274E+00    0.214358039543811885E-02   -0.869176861943690704E-02    0.159908808405410485E+01    0.195997356906730175E+00    0.501791496931423972E+05
   -0.167656275258988444E-02    0.126265876845644545E-02    0.207512570211853820E+00   -0.402840606681409419E-02   -0.173333903454380850E-01    0.159847994912733471E+01    0.193411660612453462E+00    0.501791682302604677E+05
   -0.173406263181815831E-02    0.256884999629151890E-03    0.205307168163451681E+00    0.971016176534431064E-03   -0.130113711780888569E-01    0.159987844894381359E+01    0.192472002107778845E+00    0.501791979368121392E+05
    0.518341114863006764E-03    0.101233864296270998E-02    0.205422352833399852E+00   -0.237727066376437757E-02   -0.169087313157608304E-01    0.160036184904154166E+01    0.193366763672380232E+00    0.501792134640108998E+05
    0.122210332970149765E-02   -0.485155873319480073E-03    0.207268252469125808E+00   -0.193859279949826213E-02    0.149296994368478819E-01    0.159866195899077579E+01    0.192877600006345323E+00    0.501792142695321818E+05
   -0.456504530551308932E-03   -0.176372015683679505E-03    0.205087125361417544E+00    0.461005010685822114E-02    0.947403900624635420E-02    0.159956070878181955E+01    0.192556601121499388E+00    0.501792144232170540E+05
    0.397840102079629633E-03    0.514948936653874460E-03    0.205342727450816165E+00   -0.293109833528036601E-02    0.765123199495984507E-02    0.160016630892404632E+01    0.192453813852199229E+00    0.501792863538431266E+05
    0.760837545479362085E-03    0.967767993372823038E-03    0.208602766013409907E+00    0.196990299612986863E-02   -0.217748810973593665E-01    0.159922702900172142E+01    0.193330045508914111E+00    0.501793044570332859E+05
   -0.130103994232064066E-03    0.116359742405646848E-02    0.207930969742454758E+00   -0.644784427347361300E-03    0.243280263943768948E-01    0.159972340294284532E+01    0.193651197652593643E+00    0.501793173227112857E+05
    0.197836752747347210E-03    0.192847417196498078E-02    0.205880052086431758E+00    0.162061658519660479E-03   -0.168017130517355007E-01    0.159858578856413991E+01    0.194431372709950478E+00    0.501793313503955287E+05
   -0.772537061250165428E-03    0.550083610120022902E-03    0.206538135924580840E+00    0.310858740003636114E-02    0.104667830134106826E-01    0.160007745288996239E+01    0.192651729616824197E+00    0.501793510695499208E+05
   -0.595273262512623731E-03    0.238494350172518531E-02    0.207507825582199656E+00   -0.285189167226744533E-02   -0.161194624188993330E-01    0.159923819035232095E+01    0.192082419116287623E+00    0.501793815143932588E+05
   -0.105134641296485113E-03    0.706189624694948843E-03    0.204739538125085135E+00   -0.236377758929731674E-02   -0.156300100844275341E-01    0.159898210088098258E+01    0.194661576844890688E+00    0.501806318768998754E+05
   -0.105134641296485113E-03    0.706189624694948843E-03    0.204739538125085135E+00   -0.236377758929731674E-02   -0.156300100844275341E-01    0.159898210088098258E+01    0.194661576844890688E+00    0.501806318768998754E+05
   -0.105134641296485113E-03    0.706189624694948843E-03    0.204739538125085135E+00   -0.236377758929731674E-02   -0.156300100844275341E-01    0.159898210088098258E+01    0.194661576844890688E+00    0.501806318768998754E+05
   -0.185036663907066573E-02    0.681167001482493482E-03    0.204665126469558117E+00   -0.356876444975071094E-02   -0.163984288034495496E-01    0.159976467307272219E+01    0.195099023389746246E+00    0.501794872267265746E+05
   -0.103809878621015456E-03    0.586936327149976413E-03    0.209405036417560225E+00   -0.158146255625969678E-02   -0.218784514687571097E-01    0.160017338842379964E+01    0.192873823050631416E+00    0.501798636361450699E+05
    0.768479837876874842E-03   -0.875508488852833207E-03    0.205790055118168586E+00    0.119813163113353938E-02   -0.157395567608214354E-01    0.159901693874462825E+01    0.193644718463880261E+00    0.501803235147666783E+05
    0.768479837876874842E-03   -0.875508488852833207E-03    0.205790055118168586E+00    0.119813163113353938E-02   -0.157395567608214354E-01    0.159901693874462825E+01    0.193644718463880261E+00    0.501803235147666783E+05
   -0.294619554400199068E-03    0.152994040676991634E-03    0.204995158476146438E+00    0.275663713588407411E-02   -0.173062731300650946E-01    0.159952049515843697E+01    0.195058167364484475E+00    0.501801372942778908E+05
   -0.294619554400199068E-03    0.152994040676991634E-03    0.204995158476146438E+00    0.275663713588407411E-02   -0.173062731300650946E-01    0.159952049515843697E+01    0.195058167364484475E+00    0.501801372942778908E+05
   -0.982461373742786730E-03   -0.749864459108114632E-03    0.207493131345224041E+00    0.118591752171329223E-02   -0.149372642822052371E-01    0.159970939137549761E+01    0.191510576191769755E+00    0.501799638800937610E+05
   -0.982461373742786730E-03   -0.749864459108114632E-03    0.207493131345224041E+00    0.118591752171329223E-02   -0.149372642822052371E-01    0.159970939137549761E+01    0.191510576191769755E+00    0.501799638800937610E+05
   -0.335718857683660733E-03    0.329561698110841729E-03    0.206869299271353696E+00   -0.374347951831567605E-02   -0.172161615404347046E-01    0.160013916027542202E+01    0.191819478884226124E+00    0.501797177408121788E+05
   -0.111927756346483857E-03   -0.225707309275886218E-03    0.204581091124202613E+00   -0.118386899902996057E-02   -0.160145991194784176E-01    0.159854331711921693E+01    0.194665849427437504E+00    0.501800890360328776E+05
   -0.111927756346483857E-03   -0.225707309275886218E-03    0.204581091124202613E+00   -0.118386899902996057E-02   -0.160145991194784176E-01    0.159854331711921693E+01    0.194665849427437504E+00    0.501800890360328776E+05
   -0.106260460216318822E-02    0.775271052705024167E-03    0.207191370210558723E+00    0.213259748264693627E-02   -0.140039571808338315E-01    0.159999258272836276E+01    0.191679074495576474E+00    0.501802775214479188E+05
   -0.106260460216318822E-02    0.775271052705024167E-03    0.207191370210558723E+00    0.213259748264693627E-02   -0.140039571808338315E-01    0.159999258272836276E+01    0.191679074495576474E+00    0.501802775214479188E+05
    0.193211658829168593E-03    0.112072598883008914E-02    0.207602771350358567E+00    0.633556957004872967E-02   -0.143748311512998800E-01    0.160034554751413083E+01    0.192404100409658746E+00    0.501794761978385504E+05
    0.332144499298592201E-03   -0.113164530176275226E-03    0.206179107005786316E+00    0.329792094637597344E-02   -0.105996480524813003E-01    0.159989311253458832E+01    0.193271450319414534E+00    0.501796278927168605E+05
    0.332144499298592201E-03   -0.113164530176275226E-03    0.206179107005786316E+00    0.329792094637597344E-02   -0.105996480524813003E-01    0.159989311253458832E+01    0.193271450319414534E+00    0.501796278927168605E+05
    0.201496558069574417E-02    0.328276136534694479E-03    0.209083669871085509E+00    0.179716959220758976E-02   -0.190465602033418058E-01    0.160005700408599094E+01    0.191300013015672149E+00    0.501794322470761035E+05
    0.942559930841228952E-04    0.102299241938911818E-02    0.205886620708233464E+00    0.116709778740778369E-02   -0.131053714419412104E-01    0.160032539043693900E+01    0.192082506527631452E+00    0.501801770428983364E+05
    0.942559930841228952E-04    0.102299241938911818E-02    0.205886620708233464E+00    0.116709778740778369E-02   -0.131053714419412104E-01    0.160032539043693900E+01    0.192082506527631452E+00    0.501801770428983364E+05
    0.159739589075466679E-02    0.887347718251680490E-03    0.206589004153722444E+00    0.198294984313725220E-02   -0.168925473730604236E-01    0.159854572501603309E+01    0.193588611337169092E+00    0.501794724372325581E+05
   -0.799283862369645120E-03    0.392376376784221931E-03    0.204590575134593222E+00   -0.217201828289034782E-02   -0.128713229831342729E-01    0.159816360641970734E+01    0.194029158831582477E+00    0.501794685981577495E+05
    0.131305519995680549E-02    0.209288249059195569E-03    0.206057937301818511E+00    0.366964613010745122E-02   -0.191546335308768745E-01    0.159931233896677405E+01    0.194511854200551559E+00    0.501794398260194284E+05
   -0.577066831938801805E-03    0.496419067510576236E-03    0.206026378259247300E+00   -0.592307738907447978E-02   -0.150743802441707098E-01    0.159913897037057984E+01    0.192857092734403296E+00    0.501799202098385140E+05
    0.345009712581079825E-03    0.107404940921041348E-02    0.209512777082531965E+00   -0.253083802152831439E-03   -0.158817592783000727E-01    0.160093619655014630E+01    0.190414729484771922E+00    0.501795019648313755E+05
    0.910703812653149754E-03    0.330884208291150046E-03    0.203282686491163128E+00    0.383350678003488432E-02   -0.126055114931078877E-01    0.159990990107839659E+01    0.195124823519580132E+00    0.501798235486938793E+05
    0.910703812653149754E-03    0.330884208291150046E-03    0.203282686491163128E+00    0.383350678003488432E-02   -0.126055114931078877E-01    0.159990990107839659E+01    0.195124823519580132E+00    0.501798235486938793E+05
   -0.630590469172974551E-03    0.810787274792894265E-03    0.206719879786649130E+00    0.183003835272818605E-02   -0.140206808033058877E-01    0.159821348815602260E+01    0.192644235537098779E+00    0.501794625416641793E+05
    0.179369329003190503E-02    0.164283033541670349E-03    0.204592665241615401E+00   -0.190185254719679731E-02   -0.127459087441813279E-01    0.159941054348677358E+01    0.194281242902217904E+00    0.501794908764133725E+05
    0.106019502831484081E-02    0.168874703237120315E-02    0.208000992589666506E+00    0.168824200855832718E-02   -0.181468633937428986E-01    0.160053734443767182E+01    0.192149062455800573E+00    0.501794012795126619E+05
    0.162984565047143972E-02    0.108861094056121816E-02    0.206869616078919044E+00   -0.151371326656726812E-02   -0.152140718959752064E-01    0.159971747257477204E+01    0.193390634288390262E+00    0.501800887305853976E+05
    0.162984565047143972E-02    0.108861094056121816E-02    0.206869616078919044E+00   -0.151371326656726812E-02   -0.152140718959752064E-01    0.159971747257477204E+01    0.193390634288390262E+00    0.501800887305853976E+05
   -0.125924989623675716E-02    0.178675262526354034E-02    0.204770564101459385E+00   -0.317754188521104930E-02   -0.122250786352720159E-01    0.160015858764756036E+01    0.193374287962739005E+00    0.501795908266215265E+05
    0.686120300723784657E-03    0.442681569663519751E-03    0.207307092886835825E+00    0.722481699733726335E-03   -0.182835525735057097E-01    0.159970648565321283E+01    0.194142861850822190E+00    0.501804030297259960E+05
    0.686120300723784657E-03    0.442681569663519751E-03    0.207307092886835825E+00    0.722481699733726335E-03   -0.182835525735057097E-01    0.159970648565321283E+01    0.194142861850822190E+00    0.501804030297259960E+05
    0.871615657550776370E-03    0.453028481012816939E-03    0.204678165520898819E+00    0.520463043735834574E-02   -0.143417917327779143E-01    0.159981671695471817E+01    0.194216052417330365E+00    0.501799483908069669E+05
    0.871615657550776370E-03    0.453028481012816939E-03    0.204678165520898819E+00    0.520463043735834574E-02   -0.143417917327779143E-01    0.159981671695471817E+01    0.194216052417330365E+00    0.501799483908069669E+05
   -0.166586762847580473E-02    0.463131834555226596E-04    0.207132176981590033E+00    0.985704531172193477E-03    0.173991862245421736E-01    0.160025639558609756E+01    0.192167936139496287E+00    0.501800027699679340E+05
    0.177867419107424340E-03    0.160861426785570329E-02    0.208499805546936451E+00    0.668217368853381288E-02    0.207114597923358651E-01    0.159998499590834653E+01    0.192487734226928969E+00    0.501794614651792144E+05
    0.270524958968072283E-03   -0.507344936024338184E-03    0.204222923865823830E+00    0.427144886949129554E-03    0.746898603660191285E-02    0.159989163938746271E+01    0.193240233890562302E+00    0.501798031148707960E+05
   -0.417856085238549704E-03    0.158647420379186169E-02    0.209126828394388370E+00   -0.244490924548509958E-02    0.181541209111848872E-01    0.159953608424170990E+01    0.190365342808821503E+00    0.501797851376319813E+05
   -0.946823196784040985E-05    0.177532360356154307E-02    0.208790597480006029E+00   -0.178515908375208310E-02    0.209269039515260352E-01    0.159871213730044248E+01    0.191776500486616458E+00    0.501798490459323002E+05
   -0.946823196784040985E-05    0.177532360356154307E-02    0.208790597480006029E+00   -0.178515908375208310E-02    0.209269039515260352E-01    0.159871213730044248E+01    0.191776500486616458E+00    0.501798490459323002E+05
   -0.148817051985087223E-02    0.526597148475947100E-03    0.207456151129256444E+00    0.479509427380800379E-03    0.142643467648311956E-01    0.159972652521580261E+01    0.192258315990892298E+00    0.501802828731393965E+05
   -0.148817051985087223E-02    0.526597148475947100E-03    0.207456151129256444E+00    0.479509427380800379E-03    0.142643467648311956E-01    0.159972652521580261E+01    0.192258315990892298E+00    0.501802828731393965E+05
   -0.148817051985087223E-02    0.526597148475947100E-03    0.207456151129256444E+00    0.479509427380800379E-03    0.142643467648311956E-01    0.159972652521580261E+01    0.192258315990892298E+00    0.501802828731393965E+05
   -0.242858876934147000E-03    0.346288777170852794E-04    0.205523244191966742E+00    0.443450266677176963E-02    0.146613190648254427E-01    0.160035705435170783E+01    0.194070520935863911E+00    0.501804004172934583E+05
   -0.242858876934147000E-03    0.346288777170852794E-04    0.205523244191966742E+00    0.443450266677176963E-02    0.146613190648254427E-01    0.160035705435170783E+01    0.194070520935863911E+00    0.501804004172934583E+05
   -0.242858876934147000E-03    0.346288777170852794E-04    0.205523244191966742E+00    0.443450266677176963E-02    0.146613190648254427E-01    0.160035705435170783E+01    0.194070520935863911E+00    0.501804004172934583E+05
    0.157621752712023395E-04   -0.779845697985386433E-03    0.208322788616490895E+00   -0.113981182355668564E-02    0.196218498918106776E-01    0.159980012950633621E+01    0.192799723485966384E+00    0.501805626936387853E+05
    0.157621752712023395E-04   -0.779845697985386433E-03    0.208322788616490895E+00   -0.113981182355668564E-02    0.196218498918106776E-01    0.159980012950633621E+01    0.192799723485966384E+00    0.501805626936387853E+05
    0.157621752712023395E-04   -0.779845697985386433E-03    0.208322788616490895E+00   -0.113981182355668564E-02    0.196218498918106776E-01    0.159980012950633621E+01    0.192799723485966384E+00    0.501805626936387853E+05
    0.936821291852749766E-03   -0.766238572786568506E-04    0.207313085534824831E+00   -0.236665640687330758E-02    0.145068409594019537E-01    0.160058411381296772E+01    0.191963961705717390E+00    0.501799386130174098E+05
    0.546673843629324183E-03    0.129555369865771725E-02    0.204937288050254629E+00    0.124339964885729348E-02    0.190732649835583246E-01    0.159888671516111813E+01    0.194372676052914861E+00    0.501798809658779137E+05
    0.782928614639569502E-03    0.873441921331968374E-03    0.206703466492999838E+00    0.211113162996018344E-04    0.176630866104363904E-01    0.160055031870322506E+01    0.191887750263802004E+00    0.501798408430545460E+05
    0.782928614639569502E-03    0.873441921331968374E-03    0.206703466492999838E+00    0.211113162996018344E-04    0.176630866104363904E-01    0.160055031870322506E+01    0.191887750263802004E+00    0.501798408430545460E+05
    0.143745149959745885E-02    0.125682636286560644E-02    0.209513024928421721E+00    0.423780306522578143E-02    0.234901156826542862E-01    0.159947741284252243E+01    0.192385648789757779E+00    0.501793859506040390E+05
    0.154166466048054514E-02    0.897612173802887661E-03    0.207368920385261696E+00    0.118228210066755046E-02    0.139504502866408808E-01    0.159944785815854229E+01    0.191824351036443880E+00    0.501797253244715394E+05
   -0.350416500589603502E-03    0.243972700002647523E-03    0.204421647279928037E+00   -0.339222998236660134E-02    0.102654083133755514E-01    0.159893568223611093E+01    0.193918676065253981E+00    0.501801601625969051E+05
   -0.350416500589603502E-03    0.243972700002647523E-03    0.204421647279928037E+00   -0.339222998236660134E-02    0.102654083133755514E-01    0.159893568223611093E+01    0.193918676065253981E+00    0.501801601625969051E+05
    0.709517513735180919E-03    0.551781812306164818E-03    0.209745634769832295E+00   -0.255214974092017599E-02    0.181298152476728480E-01    0.159928211404928700E+01    0.190149812370761923E+00    0.501794535697090614E+05
   -0.670459551831903346E-04    0.132659322303897037E-02    0.205197312372900981E+00    0.332203165430275393E-02    0.170940188931888171E-01    0.159962023539061127E+01    0.194921491133246666E+00    0.501805448646514124E+05
   -0.670459551831903346E-04    0.132659322303897037E-02    0.205197312372900981E+00    0.332203165430275393E-02    0.170940188931888171E-01    0.159962023539061127E+01    0.194921491133246666E+00    0.501805448646514124E+05
   -0.670459551831903346E-04    0.132659322303897037E-02    0.205197312372900981E+00    0.332203165430275393E-02    0.170940188931888171E-01    0.159962023539061127E+01    0.194921491133246666E+00    0.501805448646514124E+05
   -0.670459551831903346E-04    0.132659322303897037E-02    0.205197312372900981E+00    0.332203165430275393E-02    0.170940188931888171E-01    0.159962023539061127E+01    0.194921491133246666E+00    0.501805448646514124E+05
   -0.108017302092660119E-02    0.152813898726125263E-02    0.206312494433885912E+00   -0.233952426480368847E-02    0.206383581528761795E-01    0.159988332592500115E+01    0.192977773978857042E+00    0.501794697137933545E+05
   -0.415545056007041419E-03    0.201784045157713627E-02    0.206642666272728759E+00    0.180886075511518807E-03    0.180203673574503148E-01    0.160019448792371222E+01    0.191692262636808608E+00    0.501795176117925148E+05
   -0.104040502662026252E-02    0.239534119148478684E-02    0.207631289740159819E+00   -0.106385346574763839E-02    0.216257102396809897E-01    0.160011369865701103E+01    0.192345671496400250E+00    0.501794701640522107E+05
    0.100939989313145379E-02   -0.382962786316145805E-04    0.206817361482680678E+00    0.290376807735667763E-02    0.180128500089699467E-01    0.159843634836360593E+01    0.192571189177795171E+00    0.501793965460908876E+05
    0.429278973740188042E-03    0.755232073816201085E-03    0.206854445970900885E+00   -0.920386137976542118E-03    0.165643364091222073E-01    0.160120357045611184E+01    0.193352322937730553E+00    0.501795299599969439E+05
    0.597044588580679554E-03    0.539885337407963099E-04    0.208750827312102122E+00    0.191630319906317681E-02    0.172704689481753687E-01    0.159920293568414751E+01    0.190597822006078610E+00    0.501801730977811094E+05
    0.597044588580679554E-03    0.539885337407963099E-04    0.208750827312102122E+00    0.191630319906317681E-02    0.172704689481753687E-01    0.159920293568414751E+01    0.190597822006078610E+00    0.501801730977811094E+05
    0.143388286557232007E-03    0.173231027086452431E-02    0.210909336248384760E+00   -0.119794247879614901E-02    0.230988193293766020E-01    0.159933869556564168E+01    0.191286022852508814E+00    0.501795149294227522E+05
   -0.983957902081170760E-03    0.444084507727958986E-03    0.204639563861958806E+00   -0.484224288811316295E-02    0.897791600771369325E-02    0.160009567118369689E+01    0.192779763914553676E+00    0.501793822357340978E+05
